Language model created by QuickLM on Thu Mar  8 09:48:36 EST 2018
Copyright (c) 1996-2010 Carnegie Mellon University and Alexander I. Rudnicky

The model is in standard ARPA format, designed by Doug Paul while he was at MITRE.

The code that was used to produce this language model is available in Open Source.
Please visit http://www.speech.cs.cmu.edu/tools/ for more information

The (fixed) discount mass is 0.5. The backoffs are computed using the ratio method.
This model based on a corpus of 25 sentences and 321 words

\data\
ngram 1=321
ngram 2=677
ngram 3=723

\1-grams:
-3.2036 1 -0.3008
-3.2036 10 -0.2942
-2.9025 11 -0.2939
-3.2036 12 -0.2942
-3.2036 1973 -0.2950
-3.2036 2 -0.3008
-2.7265 2013 -0.2922
-3.2036 260 -0.2980
-3.2036 3 -0.3008
-3.2036 33 -0.3005
-3.2036 5 -0.2980
-3.2036 6 -0.2942
-3.2036 7 -0.2942
-3.2036 8 -0.2942
-3.2036 9 -0.2942
-1.8056 </s> -0.3010
-1.8056 <s> -0.2724
-1.8612 A -0.2920
-2.9025 ABILITY -0.2950
-2.7265 ABOUT -0.2972
-2.5046 ACADEMIC -0.2986
-2.6015 ACCESS -0.2836
-3.2036 ACCREDITED -0.3005
-3.2036 ACROSS -0.2922
-2.7265 ADMINISTRATIVE -0.2978
-2.9025 ADULTS -0.2900
-2.9025 ALL -0.2914
-3.2036 ALREADY -0.3008
-2.9025 ALSO -0.2999
-3.2036 AN -0.3008
-1.7265 AND -0.2522
-3.2036 ANSWERED -0.2942
-3.2036 ANY -0.2928
-2.4254 ARE -0.2847
-3.2036 AROUND -0.2922
-2.3005 AS -0.2773
-3.2036 ASIA -0.3008
-3.2036 ASPECT -0.2936
-2.9025 ASSOCIATE -0.3002
-2.5046 AT -0.2867
-3.2036 AVAILABILITY -0.2936
-3.2036 BANK -0.2936
-3.2036 BASED -0.3005
-3.2036 BE -0.3008
-3.2036 BECOMING -0.2999
-3.2036 BEEN -0.2997
-3.2036 BEHIND -0.2950
-2.7265 BELLEVUE -0.2922
-3.2036 BEND -0.2936
-3.2036 BETTER -0.3005
-3.2036 BETWEEN -0.2967
-3.2036 BIT -0.3008
-3.2036 BLACKBOARD -0.2928
-3.2036 BOOK -0.3008
-3.2036 BUILDING -0.2969
-3.2036 BUSINESS -0.2991
-2.9025 BUSY -0.2999
-2.9025 BUT -0.2989
-2.9025 BY -0.2978
-3.2036 CAME -0.3002
-3.2036 CAMPUS -0.2989
-3.2036 CAN -0.3008
-3.2036 CANADA -0.2928
-3.2036 CAPTION -0.3005
-2.5046 CENTER -0.2895
-3.2036 CENTRALIZED -0.3002
-3.2036 CHAIR -0.2936
-3.2036 CHALLENGES -0.2942
-2.7265 CHANGE -0.2931
-3.2036 CITY -0.2999
-2.4254 CITYU -0.2934
-3.2036 CLASSROOM -0.3008
-3.2036 CLASSROOMS -0.2928
-2.9025 COLLABORATE -0.3005
-2.7265 COLLABORATION -0.2936
-2.9025 COLLABORATIONS -0.2983
-3.2036 COLLABORATIVE -0.2999
-3.2036 COLLABORATORS -0.2958
-2.9025 COMMITTEE -0.2920
-3.2036 COMMITTEES -0.2989
-3.2036 COMMON -0.2983
-3.2036 COMMONS -0.2969
-3.2036 COMPLETED -0.3008
-3.2036 COMPONENT -0.2936
-3.2036 COMPRISED -0.2936
-3.2036 COMPUTERS -0.2928
-3.2036 CONCENTRATION -0.2936
-3.2036 CONDUIT -0.2986
-2.9025 CONTRIBUTES -0.2950
-3.2036 COUNSELING -0.3008
-3.2036 COUNTRIES -0.2967
-3.2036 CROSS -0.2928
-2.9025 CURRENT -0.3005
-2.7265 CURRICULUM -0.2986
-3.2036 DANGEROUS -0.2950
-3.2036 DENSE -0.3008
-2.6015 DESIGN -0.2942
-2.6015 DESK -0.2975
-2.9025 DEVELOPING -0.2925
-2.9025 DEVELOPMENT -0.2986
-3.2036 DIGITAL -0.3008
-2.9025 DIRECTLY -0.2942
-2.7265 DIRECTOR -0.2936
-3.2036 DIVISIONS -0.2969
-3.2036 DO -0.2969
-3.2036 DOCTORAL -0.3005
-3.2036 E -0.3008
-3.2036 EACH -0.3002
-3.2036 EDUCATION -0.3008
-2.9025 EFFECTIVELY -0.2969
-2.9025 ENSURE -0.2942
-3.2036 ENTIRELY -0.3008
-3.2036 EUROPE -0.3008
-3.2036 EVERGREEN -0.3008
-3.2036 EVERYONE -0.2991
-2.3585 EXPANDED -0.2983
-3.2036 EXPANDING -0.3008
-3.2036 FACTS -0.2942
-2.3585 FACULTY -0.2759
-3.2036 FAIRLY -0.3005
-2.7265 FEW -0.2967
-3.2036 FIRST -0.2989
-3.2036 FOCUS -0.2991
-3.2036 FOCUSED -0.3005
-2.2493 FOR -0.2782
-3.2036 FOUND -0.2958
-3.2036 FOUNDED -0.2958
-2.5046 FROM -0.2928
-2.9025 FRONT -0.2999
-3.2036 GET -0.3008
-3.2036 GIVEN -0.2922
-3.2036 GRADUATE -0.2928
-3.2036 HAD -0.3008
-3.2036 HAS -0.3008
-2.9025 HEAR -0.2999
-2.9025 HELPED -0.3005
-3.2036 HOW -0.3008
-3.2036 I -0.2989
-3.2036 IMPROVE -0.2999
-3.2036 IMPROVED -0.3002
-1.9248 IN -0.2779
-2.7265 INCLUDED -0.2909
-3.2036 INCREASE -0.2922
-3.2036 INCREASINGLY -0.3008
-2.7265 INFORMATION -0.2914
-2.9025 INSTRUCTION -0.2939
-3.2036 INTEGRATED -0.3002
-2.9025 INTERACTIONS -0.2956
-3.2036 INTERESTED -0.2958
-3.2036 INTERNATIONAL -0.2980
-3.2036 INTO -0.2989
-2.3005 IS -0.2813
-3.2036 IT -0.3008
-2.9025 JANUARY -0.2928
-2.9025 KEY -0.3005
-3.2036 LANGUAGES -0.3008
-3.2036 LEAD -0.2958
-3.2036 LEADERSHIP -0.3008
-2.5046 LEARNING -0.2917
-3.2036 LECHNER -0.3005
-2.9025 LEVELS -0.2964
-2.1244 LIBRARY -0.2841
-2.9025 LIKE -0.2986
-3.2036 LITERACY -0.3005
-2.9025 LL -0.3005
-2.9025 LOCATED -0.2958
-2.7265 LOCATION -0.2853
-3.2036 LOOKED -0.3005
-3.2036 LOOKING -0.2978
-3.2036 MAIN -0.3002
-3.2036 MAJOR -0.3008
-3.2036 MARA -0.3002
-3.2036 MARKED -0.2950
-3.2036 MARY -0.3008
-2.9025 MATT -0.3002
-3.2036 MEMBERS -0.2936
-3.2036 MEXICO -0.2989
-3.2036 MIDDLE -0.2936
-3.2036 MINUTES -0.2958
-3.2036 MISSION -0.2997
-3.2036 MIX -0.2936
-3.2036 MIXED -0.3008
-3.2036 MODE -0.2991
-3.2036 MODEL -0.3002
-2.6015 MORE -0.2917
-3.2036 MOVE -0.2950
-2.9025 MOVED -0.2936
-3.2036 MULTIPLE -0.3005
-3.2036 NATURE -0.2936
-2.9025 NEEDS -0.2936
-3.2036 NEW -0.3002
-3.2036 NEXT -0.3008
-2.9025 NON -0.3005
-3.2036 NOT -0.3008
-2.7265 NOW -0.2980
-3.2036 NWCCU -0.2997
-1.7722 OF -0.2633
-3.2036 OFF -0.2994
-2.9025 OFFER -0.3002
-2.3585 ON -0.2836
-3.2036 ONE -0.3008
-3.2036 ONLINE -0.3008
-1.9995 OUR -0.2892
-3.2036 OUTREACH -0.2999
-3.2036 OVER -0.3008
-3.2036 PARTNERS -0.2958
-3.2036 PERFORMANCE -0.3008
-3.2036 PERSON -0.2942
-3.2036 PICTURE -0.2936
-3.2036 POINT -0.2936
-3.2036 PRESENCE -0.2989
-3.2036 PREVIOUS -0.3008
-3.2036 PRIMARILY -0.2997
-3.2036 PRIOR -0.2950
-3.2036 PRIVATE -0.3005
-2.7265 PROCESS -0.2922
-3.2036 PROFIT -0.2999
-3.2036 PROGRAM -0.3005
-2.9025 PROGRAMS -0.2945
-3.2036 PROVIDES -0.2950
-3.2036 PROVOST -0.2928
-3.2036 QUESTIONS -0.3008
-3.2036 QUICK -0.3008
-3.2036 REPORTS -0.3005
-2.7265 RESOURCE -0.2997
-3.2036 RESOURCES -0.2997
-3.2036 ROAD -0.2969
-2.9025 ROLE -0.2906
-3.2036 ROUTINE -0.3008
-2.6015 S -0.2983
-3.2036 SALMAN -0.3005
-3.2036 SCHOOLS -0.2928
-2.3005 SEATTLE -0.2864
-3.2036 SECOND -0.3008
-2.9025 SEE -0.2967
-3.2036 SEEMS -0.3005
-2.9025 SERVE -0.2922
-2.9025 SERVICE -0.2939
-2.9025 SERVICES -0.2958
-3.2036 SERVING -0.2989
-3.2036 SESSION -0.2991
-3.2036 SHIFT -0.2942
-3.2036 SHOP -0.2986
-3.2036 SIGNIFICANT -0.2922
-3.2036 SIMPLE -0.3008
-2.4254 SITE -0.2836
-2.9025 SITES -0.2956
-3.2036 SITUATED -0.2950
-3.2036 SLIDE -0.3008
-3.2036 SLOW -0.3005
-3.2036 SMALL -0.3008
-3.2036 SOMETIMES -0.3008
-3.2036 STACKS -0.3008
-2.6015 STAFF -0.2883
-3.2036 STAKEHOLDER -0.2958
-3.2036 STANDING -0.2997
-3.2036 STARTED -0.2950
-3.2036 STATE -0.2983
-3.2036 STEADY -0.3008
-3.2036 STEP -0.3008
-3.2036 STOP -0.3008
-2.6015 STUDENT -0.2900
-2.1622 STUDENTS -0.2727
-3.2036 STUDY -0.3008
-3.2036 SUCCESSES -0.2942
-2.7265 SUPPORT -0.2917
-3.2036 TABLES -0.2967
-3.2036 TAKE -0.2950
-2.7265 TAMMY -0.2872
-3.2036 TEACHING -0.2967
-3.2036 TECH -0.2942
-2.3585 TECHNOLOGY -0.2925
-3.2036 TERMS -0.2936
-2.0275 THAT -0.2881
-1.6984 THE -0.2821
-2.9025 THEIR -0.3002
-3.2036 THERE -0.2994
-3.2036 THEY -0.3008
-3.2036 THING -0.2969
-3.2036 THINGS -0.2969
-2.3005 THIS -0.2827
-3.2036 THROUGH -0.2950
-3.2036 TITLE -0.2942
-1.8612 TO -0.2759
-3.2036 TODAY -0.2994
-2.9025 TRADITIONAL -0.2975
-3.2036 TRAINING -0.2928
-3.2036 TREES -0.3002
-3.2036 TWO -0.3008
-3.2036 UNDERGRADUATE -0.3008
-3.2036 UNIQUE -0.3008
-2.6015 UNIVERSITY -0.2813
-3.2036 UPON -0.2922
-3.2036 US -0.2958
-2.9025 USAGE -0.2867
-2.9025 USE -0.2936
-2.9025 USED -0.2945
-3.2036 VERY -0.3005
-3.2036 VIEWED -0.2989
-3.2036 VISION -0.2989
-3.2036 VISITED -0.3008
-3.2036 VISUAL -0.2936
-2.3005 WAS -0.2909
-2.9025 WASHINGTON -0.2986
-3.2036 WAYS -0.2950
-2.2036 WE -0.2947
-2.7265 WEEK -0.2950
-3.2036 WELCOME -0.2950
-2.9025 WELL -0.2986
-2.3585 WERE -0.2983
-3.2036 WHAT -0.3008
-2.9025 WHERE -0.2895
-3.2036 WHICH -0.2989
-3.2036 WILL -0.3005
-2.7265 WITH -0.2986
-2.9025 WORK -0.2886
-2.7265 WORKING -0.2999
-3.2036 WORLD -0.3008
-3.2036 WOULD -0.3008
-3.2036 YET -0.3005
-2.7265 YOU -0.3002

\2-grams:
-0.3010 1 STOP 0.0000
-0.3010 10 </s> -0.3010
-0.6021 11 </s> -0.3010
-0.6021 11 COUNTRIES 0.0000
-0.3010 12 </s> -0.3010
-0.3010 1973 TO -0.2910
-0.3010 2 DIVISIONS 0.0000
-0.7782 2013 CITYU -0.1761
-0.7782 2013 OUR -0.2583
-0.7782 2013 WE -0.2788
-0.3010 260 STUDENTS -0.2808
-0.3010 3 SCHOOLS 0.0000
-0.3010 33 SITES -0.1761
-0.3010 5 STUDENTS -0.2808
-0.3010 6 </s> -0.3010
-0.3010 7 </s> -0.3010
-0.3010 8 </s> -0.3010
-0.3010 9 </s> -0.3010
-1.6990 <s> 10 0.0000
-1.6990 <s> 11 -0.1761
-1.6990 <s> 12 0.0000
-1.6990 <s> 6 0.0000
-1.6990 <s> 7 0.0000
-1.6990 <s> 8 0.0000
-1.6990 <s> 9 0.0000
-1.6990 <s> CHALLENGES 0.0000
-1.6990 <s> CITY 0.0000
-0.9208 <s> EXPANDED -0.0000
-1.6990 <s> FROM -0.2553
-1.6990 <s> FRONT 0.0000
-1.6990 <s> IN -0.2775
-1.6990 <s> PRIOR 0.0000
-1.6990 <s> QUICK 0.0000
-1.6990 <s> SLIDE 0.0000
-1.6990 <s> SUCCESSES 0.0000
-1.6990 <s> THE -0.2942
-1.6990 <s> TO -0.2910
-1.6990 <s> WELCOME 0.0000
-1.6435 A 1 0.0000
-1.6435 A BIT 0.0000
-1.6435 A BUSY -0.1761
-1.6435 A CENTRALIZED 0.0000
-1.6435 A COLLABORATIVE 0.0000
-1.6435 A CURRENT -0.1761
-1.6435 A DENSE 0.0000
-1.6435 A FAIRLY 0.0000
-1.6435 A FEW -0.2218
-1.6435 A FOCUS 0.0000
-1.6435 A GIVEN 0.0000
-1.3424 A KEY 0.0000
-1.6435 A LEARNING -0.2553
-1.6435 A MAJOR 0.0000
-1.6435 A MIX 0.0000
-1.6435 A NON -0.1761
-1.6435 A PRIVATE 0.0000
-1.6435 A SIMPLE 0.0000
-1.6435 A SLOW 0.0000
-1.6435 A VERY 0.0000
-1.6435 A WEEK -0.2218
-0.3010 ABILITY TO -0.2808
-0.7782 ABOUT FROM -0.2041
-0.7782 ABOUT THIS -0.2730
-0.7782 ABOUT THROUGH 0.0000
-1.0000 ACADEMIC COMMITTEES 0.0000
-1.0000 ACADEMIC TECH 0.0000
-0.5229 ACADEMIC TECHNOLOGY -0.1549
-0.9031 ACCESS AND -0.2937
-0.9031 ACCESS DIGITAL 0.0000
-0.6021 ACCESS THE -0.2730
-0.3010 ACCREDITED BY -0.1761
-0.3010 ACROSS THE -0.2872
-0.4771 ADMINISTRATIVE CENTER -0.2041
-0.7782 ADMINISTRATIVE FACULTY -0.2688
-0.6021 ADULTS AND -0.2937
-0.6021 ADULTS WE -0.2304
-0.6021 ALL OF -0.2929
-0.6021 ALL SEATTLE -0.2730
-0.3010 ALREADY STARTED 0.0000
-0.6021 ALSO CONTRIBUTES 0.0000
-0.6021 ALSO SEE -0.1761
-0.3010 AN INTEGRATED 0.0000
-1.7782 AND 2 0.0000
-1.7782 AND A -0.2808
-1.7782 AND ALL -0.1761
-1.7782 AND BEHIND 0.0000
-1.7782 AND COLLABORATION -0.2218
-1.7782 AND DOCTORAL 0.0000
-1.4771 AND FACULTY -0.2341
-1.7782 AND IMPROVED 0.0000
-1.7782 AND INTERNATIONAL 0.0000
-1.4771 AND LEARNING -0.1461
-1.7782 AND LIBRARY -0.2430
-1.7782 AND MATT -0.1761
-1.7782 AND MEXICO 0.0000
-1.7782 AND MORE -0.2430
-1.7782 AND OUR -0.2872
-1.7782 AND PERFORMANCE 0.0000
-1.7782 AND SMALL 0.0000
-1.4771 AND STUDENTS -0.2596
-1.7782 AND SUPPORT -0.2218
-1.7782 AND TEACHING 0.0000
-1.7782 AND TECHNOLOGY -0.2688
-1.4771 AND THE -0.2657
-1.7782 AND THIS -0.2730
-1.7782 AND TO -0.2910
-1.7782 AND WHERE -0.1761
-1.7782 AND YOU -0.1249
-0.3010 ANSWERED </s> -0.3010
-0.3010 ANY AND -0.2937
-1.0792 ARE A -0.2910
-1.0792 ARE ACCREDITED 0.0000
-0.7782 ARE NOW -0.1249
-1.0792 ARE THE -0.2942
-1.0792 ARE TWO 0.0000
-0.3010 AROUND THE -0.2942
-1.2041 AS </s> -0.3010
-1.2041 AS A -0.2808
-1.2041 AS CHAIR 0.0000
-1.2041 AS CONDUIT 0.0000
-1.2041 AS MEMBERS 0.0000
-1.2041 AS PARTNERS 0.0000
-1.2041 AS THE -0.2942
-1.2041 AS WELL -0.1761
-0.3010 ASIA EUROPE 0.0000
-0.3010 ASPECT OF -0.2929
-0.3010 ASSOCIATE DIRECTOR 0.0000
-1.0000 AT 33 0.0000
-1.0000 AT ADMINISTRATIVE -0.1249
-1.0000 AT OUR -0.2872
-0.6990 AT THE -0.2802
-0.3010 AVAILABILITY OF -0.2929
-0.3010 BANK OF -0.2929
-0.3010 BASED PROGRAMS -0.1761
-0.3010 BE FOUND 0.0000
-0.3010 BECOMING MORE -0.2430
-0.3010 BEEN FROM -0.2553
-0.3010 BEHIND A -0.2910
-0.7782 BELLEVUE LOCATION -0.2218
-0.7782 BELLEVUE TO -0.2704
-0.7782 BELLEVUE WERE -0.2688
-0.3010 BEND OF -0.2929
-0.3010 BETTER SERVE 0.0000
-0.3010 BETWEEN OUR -0.2872
-0.3010 BIT DANGEROUS 0.0000
-0.3010 BLACKBOARD AND -0.2937
-0.3010 BOOK STACKS 0.0000
-0.3010 BUILDING THAT -0.2553
-0.3010 BUSINESS TECHNOLOGY -0.2688
-0.6021 BUSY ROAD 0.0000
-0.6021 BUSY WEEK -0.2218
-0.6021 BUT STEADY 0.0000
-0.6021 BUT WERE -0.2688
-0.6021 BY NWCCU 0.0000
-0.6021 BY STUDENTS -0.2374
-0.3010 CAME ABOUT -0.2218
-0.3010 CAMPUS WAS -0.2730
-0.3010 CAN BE 0.0000
-0.3010 CANADA AND -0.2937
-0.3010 CAPTION CURRENT -0.1761
-1.0000 CENTER FOR -0.2499
-1.0000 CENTER IN -0.2894
-1.0000 CENTER MATT -0.1761
-1.0000 CENTER MOVED -0.1761
-1.0000 CENTER WE -0.2304
-0.3010 CENTRALIZED CURRICULUM -0.1249
-0.3010 CHAIR OF -0.2762
-0.3010 CHALLENGES </s> -0.3010
-0.7782 CHANGE CAME 0.0000
-0.7782 CHANGE FOR -0.2762
-0.7782 CHANGE IN -0.2894
-0.3010 CITY UNIVERSITY -0.2430
-1.0792 CITYU IS -0.2730
-0.6021 CITYU S -0.0969
-1.0792 CITYU THAT -0.2863
-1.0792 CITYU WHICH 0.0000
-0.3010 CLASSROOM BUILDING 0.0000
-0.3010 CLASSROOMS AND -0.2937
-0.3010 COLLABORATE EFFECTIVELY 0.0000
-0.7782 COLLABORATION </s> -0.3010
-0.7782 COLLABORATION BETWEEN 0.0000
-0.7782 COLLABORATION MARY 0.0000
-0.6021 COLLABORATIONS FACULTY -0.2688
-0.6021 COLLABORATIONS WITH -0.2218
-0.3010 COLLABORATIVE DESIGN -0.0969
-0.3010 COLLABORATORS IN -0.2653
-0.6021 COMMITTEE REPORTS 0.0000
-0.6021 COMMITTEE THE -0.2942
-0.3010 COMMITTEES WAS -0.2430
-0.3010 COMMON WE -0.2553
-0.3010 COMMONS THAT -0.2863
-0.3010 COMPLETED PRIMARILY 0.0000
-0.3010 COMPONENT OF -0.2762
-0.3010 COMPRISED OF -0.2929
-0.3010 COMPUTERS AND -0.2937
-0.3010 CONCENTRATION OF -0.2676
-0.3010 CONDUIT FOR -0.2762
-0.3010 CONTRIBUTES TO -0.2704
-0.3010 COUNSELING ONE 0.0000
-0.3010 COUNTRIES OUR -0.2872
-0.3010 CROSS AND -0.2937
-0.6021 CURRENT NEXT 0.0000
-0.6021 CURRENT PICTURE 0.0000
-0.4771 CURRICULUM DEVELOPMENT 0.0000
-0.7782 CURRICULUM WERE -0.2688
-0.3010 DANGEROUS TO -0.2910
-0.3010 DENSE BANK 0.0000
-0.9031 DESIGN A -0.2910
-0.4260 DESIGN PROCESS 0.0000
-0.9031 DESK PROVIDES 0.0000
-0.9031 DESK THIS -0.2730
-0.9031 DESK USAGE -0.1761
-0.9031 DESK USED -0.1761
-0.6021 DEVELOPING AN 0.0000
-0.6021 DEVELOPING AND -0.2937
-0.6021 DEVELOPMENT IS -0.2730
-0.6021 DEVELOPMENT MODEL 0.0000
-0.3010 DIGITAL SHIFT 0.0000
-0.6021 DIRECTLY TO -0.2910
-0.6021 DIRECTLY WITH -0.2218
-0.3010 DIRECTOR OF -0.2762
-0.3010 DIVISIONS THAT -0.2863
-0.3010 DO THAT -0.2863
-0.3010 DOCTORAL LEVELS -0.1761
-0.3010 E RESOURCES 0.0000
-0.3010 EACH WEEK -0.2218
-0.3010 EDUCATION COUNSELING 0.0000
-0.6021 EFFECTIVELY IS -0.2109
-0.6021 EFFECTIVELY ON -0.2688
-0.6021 ENSURE THAT -0.2863
-0.6021 ENSURE WE -0.2553
-0.3010 ENTIRELY ROUTINE 0.0000
-0.3010 EUROPE CANADA 0.0000
-0.3010 EVERGREEN TREES 0.0000
-0.3010 EVERYONE ON -0.2688
-0.6690 EXPANDED ACCESS -0.0969
-1.1461 EXPANDED COLLABORATIONS -0.1761
-1.1461 EXPANDED MISSION 0.0000
-1.1461 EXPANDED OUTREACH 0.0000
-1.1461 EXPANDED ROLE -0.1761
-0.3010 EXPANDING UPON 0.0000
-0.3010 FACTS </s> -0.3010
-1.1461 FACULTY </s> -0.3010
-1.1461 FACULTY AND -0.2863
-1.1461 FACULTY AT -0.2041
-1.1461 FACULTY DEVELOPING -0.1761
-1.1461 FACULTY INTERACTIONS -0.1761
-1.1461 FACULTY STAFF -0.2430
-1.1461 FACULTY TO -0.2910
-0.3010 FAIRLY TRADITIONAL -0.1761
-0.7782 FEW MINUTES 0.0000
-0.7782 FEW STUDENT -0.2430
-0.7782 FEW STUDENTS -0.2808
-0.3010 FIRST IS -0.2430
-0.3010 FOCUS ON -0.2688
-0.3010 FOCUSED TRADITIONAL -0.1761
-1.2553 FOR A -0.2910
-0.9542 FOR CITYU -0.1249
-1.2553 FOR COLLABORATION -0.2218
-1.2553 FOR FACULTY -0.2688
-1.2553 FOR INFORMATION -0.2218
-1.2553 FOR ON -0.2341
-1.2553 FOR SERVICE -0.1761
-1.2553 FOR THE -0.2730
-0.3010 FOUND IN -0.2894
-0.3010 FOUNDED IN -0.2894
-1.0000 FROM BELLEVUE -0.2218
-1.0000 FROM OUR -0.2872
-0.6990 FROM TAMMY -0.1249
-1.0000 FROM THIS -0.2430
-0.3010 FRONT DESK -0.1761
-0.3010 GET WHAT 0.0000
-0.3010 GIVEN THE -0.2942
-0.3010 GRADUATE AND -0.2937
-0.3010 HAD ALREADY 0.0000
-0.3010 HAS BEEN 0.0000
-0.3010 HEAR MORE -0.1761
-0.3010 HELPED ENSURE 0.0000
-0.3010 HOW SIGNIFICANT 0.0000
-0.3010 I WAS -0.2730
-0.3010 IMPROVE STUDENT -0.2430
-0.3010 IMPROVED COLLABORATION -0.2218
-1.5798 IN 11 -0.1761
-1.5798 IN 1973 0.0000
-1.2788 IN A -0.2808
-1.5798 IN ASIA 0.0000
-1.5798 IN BELLEVUE -0.2218
-1.5798 IN DEVELOPING -0.1761
-1.2788 IN JANUARY 0.0000
-1.5798 IN LEADERSHIP 0.0000
-1.5798 IN PERSON 0.0000
-1.5798 IN SEATTLE -0.2430
-1.5798 IN STUDENT -0.2430
-1.5798 IN TERMS 0.0000
-1.1027 IN THE -0.2802
-1.5798 IN THEIR -0.1761
-1.5798 IN WAYS 0.0000
-0.7782 INCLUDED A -0.2910
-0.7782 INCLUDED AS -0.2730
-0.7782 INCLUDED FACULTY -0.2688
-0.3010 INCREASE THE -0.2942
-0.3010 INCREASINGLY VIEWED 0.0000
-0.7782 INFORMATION AND -0.2937
-0.7782 INFORMATION DESK -0.2430
-0.7782 INFORMATION LITERACY 0.0000
-0.6021 INSTRUCTION </s> -0.3010
-0.6021 INSTRUCTION PROGRAM 0.0000
-0.3010 INTEGRATED INFORMATION -0.2218
-0.6021 INTERACTIONS HAS 0.0000
-0.6021 INTERACTIONS IN -0.2894
-0.3010 INTERESTED IN -0.2894
-0.3010 INTERNATIONAL STUDENTS -0.2808
-0.3010 INTO THIS -0.2730
-0.7270 IS A -0.2704
-1.2041 IS COMPLETED 0.0000
-1.2041 IS COMPRISED 0.0000
-0.9031 IS THAT -0.2711
-1.2041 IS THE -0.2942
-0.3010 IT BLACKBOARD 0.0000
-0.6021 JANUARY 2013 -0.2218
-0.6021 JANUARY OF -0.2929
-0.6021 KEY COMPONENT 0.0000
-0.6021 KEY STAKEHOLDER 0.0000
-0.3010 LANGUAGES EDUCATION 0.0000
-0.3010 LEAD IN -0.2894
-0.3010 LEADERSHIP BUSINESS 0.0000
-1.0000 LEARNING AND -0.2937
-1.0000 LEARNING COMMONS 0.0000
-0.5229 LEARNING RESOURCE 0.0000
-0.3010 LECHNER ASSOCIATE 0.0000
-0.6021 LEVELS ACROSS 0.0000
-0.6021 LEVELS OUR -0.2730
-1.0792 LIBRARY AND -0.2863
-1.0792 LIBRARY AS -0.2430
-1.3802 LIBRARY LEARNING -0.1461
-1.3802 LIBRARY LOOKED 0.0000
-1.3802 LIBRARY SERVICES -0.1761
-0.9031 LIBRARY STAFF -0.0969
-1.3802 LIBRARY WAS -0.2730
-1.3802 LIBRARY WITH -0.2218
-0.6021 LIKE ANY 0.0000
-0.6021 LIKE THIS -0.2730
-0.3010 LITERACY INSTRUCTION -0.1761
-0.3010 LL HEAR 0.0000
-0.3010 LOCATED IN -0.2398
-0.7782 LOCATION THE -0.2942
-0.7782 LOCATION TO -0.2910
-0.7782 LOCATION YOU -0.2218
-0.3010 LOOKED LIKE -0.1761
-0.3010 LOOKING LIBRARY -0.2825
-0.3010 MAIN INFORMATION -0.2218
-0.3010 MAJOR POINT 0.0000
-0.3010 MARA DIRECTOR 0.0000
-0.3010 MARKED A -0.2910
-0.3010 MARY MARA 0.0000
-0.6021 MATT ALSO -0.1761
-0.6021 MATT LECHNER 0.0000
-0.3010 MEMBERS OF -0.2929
-0.3010 MEXICO AS -0.2730
-0.3010 MIDDLE OF -0.2929
-0.3010 MINUTES IN -0.2775
-0.3010 MISSION ACADEMIC -0.2553
-0.3010 MIX OF -0.2846
-0.3010 MIXED MODE 0.0000
-0.3010 MODE ON -0.2341
-0.3010 MODEL CURRICULUM -0.1249
-0.6021 MORE ABOUT -0.1249
-0.9031 MORE AND -0.2937
-0.9031 MORE COMMON 0.0000
-0.3010 MOVE TO -0.2704
-0.6021 MOVED FROM -0.2553
-0.6021 MOVED TO -0.2704
-0.3010 MULTIPLE LEVELS -0.1761
-0.3010 NATURE OF -0.2762
-0.3010 NEEDS OF -0.2499
-0.3010 NEW LOCATION -0.2218
-0.3010 NEXT PREVIOUS 0.0000
-0.6021 NON CLASSROOM 0.0000
-0.6021 NON PROFIT 0.0000
-0.3010 NOT ENTIRELY 0.0000
-0.7782 NOW ARE -0.2632
-0.7782 NOW LOCATED 0.0000
-0.7782 NOW WORKING -0.2218
-0.3010 NWCCU AT -0.2041
-1.7324 OF 2013 -0.2218
-1.7324 OF 3 0.0000
-1.7324 OF A -0.2910
-1.7324 OF ACADEMIC -0.1461
-1.7324 OF ACCESS -0.2430
-1.7324 OF ALL -0.1761
-1.7324 OF CHANGE -0.2218
-1.7324 OF CITYU -0.2632
-1.7324 OF E 0.0000
-1.7324 OF EVERGREEN 0.0000
-1.7324 OF HOW 0.0000
-1.7324 OF INSTRUCTION -0.1761
-1.7324 OF LIBRARY -0.2825
-1.1303 OF OUR -0.1938
-1.7324 OF SEATTLE -0.2730
-1.7324 OF STANDING 0.0000
-1.7324 OF TECHNOLOGY -0.2688
-1.2553 OF THE -0.2730
-1.7324 OF THEIR -0.1761
-1.7324 OF TRAINING 0.0000
-1.4314 OF WORKING -0.1249
-0.3010 OFF SITE -0.2218
-0.6021 OFFER ONLINE 0.0000
-0.6021 OFFER PROGRAMS -0.1761
-1.1461 ON A -0.2910
-1.1461 ON CAMPUS 0.0000
-1.1461 ON EXPANDING 0.0000
-1.1461 ON MULTIPLE 0.0000
-0.8451 ON SITE -0.1249
-1.1461 ON THE -0.2872
-0.3010 ONE UNIQUE 0.0000
-0.3010 ONLINE MIXED 0.0000
-1.2041 OUR ABILITY 0.0000
-1.5051 OUR ADMINISTRATIVE -0.2218
-1.5051 OUR BELLEVUE -0.2218
-1.5051 OUR CURRICULUM -0.2218
-1.5051 OUR FRONT 0.0000
-1.5051 OUR IT 0.0000
-1.0280 OUR LIBRARY -0.2218
-1.5051 OUR PRESENCE 0.0000
-1.5051 OUR SERVICE -0.1761
-1.5051 OUR SESSION 0.0000
-1.5051 OUR SITES -0.1761
-1.2041 OUR STUDENTS -0.2139
-0.3010 OUTREACH STUDENT -0.2430
-0.3010 OVER 260 0.0000
-0.3010 PARTNERS IN -0.2894
-0.3010 PERFORMANCE BASED 0.0000
-0.3010 PERSON </s> -0.3010
-0.3010 PICTURE OF -0.2676
-0.3010 POINT OF -0.2929
-0.3010 PRESENCE AS -0.2730
-0.3010 PREVIOUS TITLE 0.0000
-0.3010 PRIMARILY AT -0.2553
-0.3010 PRIOR TO -0.2910
-0.3010 PRIVATE NON -0.1761
-0.7782 PROCESS FOR -0.2499
-0.7782 PROCESS IS -0.2430
-0.7782 PROCESS THAT -0.2863
-0.3010 PROFIT UNIVERSITY -0.2430
-0.3010 PROGRAM COLLABORATIONS -0.1761
-0.6021 PROGRAMS AT -0.2553
-0.6021 PROGRAMS IN -0.2894
-0.3010 PROVIDES A -0.2910
-0.3010 PROVOST AND -0.2937
-0.3010 QUESTIONS ANSWERED 0.0000
-0.3010 QUICK FACTS 0.0000
-0.3010 REPORTS DIRECTLY -0.1761
-0.3010 RESOURCE CENTER -0.1461
-0.3010 RESOURCES ACADEMIC -0.1461
-0.3010 ROAD THAT -0.2553
-0.6021 ROLE SITE -0.2632
-0.6021 ROLE THE -0.2942
-0.3010 ROUTINE YET 0.0000
-0.9031 S ACADEMIC -0.1461
-0.9031 S ADMINISTRATIVE -0.1249
-0.9031 S NEW 0.0000
-0.9031 S PROVOST 0.0000
-0.3010 SALMAN ASSOCIATE 0.0000
-0.3010 SCHOOLS AND -0.2937
-0.9031 SEATTLE AND -0.2863
-1.2041 SEATTLE CLASSROOMS 0.0000
-1.2041 SEATTLE INCLUDED -0.2218
-1.2041 SEATTLE IS -0.2109
-1.2041 SEATTLE LOCATION -0.2218
-1.2041 SEATTLE SITE -0.2218
-1.2041 SEATTLE WASHINGTON -0.1761
-0.3010 SECOND THING 0.0000
-0.6021 SEE 5 0.0000
-0.6021 SEE THAT -0.2863
-0.3010 SEEMS LIKE -0.1761
-0.3010 SERVE THE -0.2872
-0.6021 SERVICE DESK -0.2430
-0.6021 SERVICE TO -0.2910
-0.6021 SERVICES FOR -0.2762
-0.6021 SERVICES WE -0.2788
-0.3010 SERVING AS -0.2730
-0.3010 SESSION EXPANDED -0.1963
-0.3010 SHIFT </s> -0.3010
-0.3010 SHOP FOR -0.2762
-0.3010 SIGNIFICANT THE -0.2942
-0.3010 SIMPLE VISUAL 0.0000
-0.7782 SITE AND -0.2788
-1.0792 SITE IN -0.2894
-0.7782 SITE STUDENTS -0.2139
-1.0792 SITE SUPPORT -0.1249
-0.6021 SITES CAN 0.0000
-0.6021 SITES IN -0.2894
-0.3010 SITUATED TO -0.2910
-0.3010 SLIDE CAPTION 0.0000
-0.3010 SLOW BUT -0.1761
-0.3010 SMALL STUDY 0.0000
-0.3010 SOMETIMES SEEMS 0.0000
-0.3010 STACKS COMPUTERS 0.0000
-0.9031 STAFF AND -0.2863
-0.9031 STAFF FOR -0.2762
-0.6021 STAFF WERE -0.2341
-0.3010 STAKEHOLDER IN -0.2653
-0.3010 STANDING ACADEMIC -0.2553
-0.3010 STARTED TO -0.2910
-0.3010 STATE WE -0.2788
-0.3010 STEADY LEAD 0.0000
-0.3010 STEP INTO 0.0000
-0.3010 STOP SHOP 0.0000
-0.9031 STUDENT AND -0.2863
-0.9031 STUDENT INTERACTIONS -0.1761
-0.9031 STUDENT LEARNING -0.2553
-0.9031 STUDENT SUPPORT -0.1249
-1.3424 STUDENTS A -0.2910
-0.8653 STUDENTS AND -0.2632
-1.3424 STUDENTS CITYU -0.2632
-1.3424 STUDENTS EACH 0.0000
-1.3424 STUDENTS ON -0.2688
-1.3424 STUDENTS THE -0.2942
-1.3424 STUDENTS THERE 0.0000
-1.3424 STUDENTS TODAY 0.0000
-1.3424 STUDENTS VISITED 0.0000
-0.3010 STUDY TABLES 0.0000
-0.3010 SUCCESSES </s> -0.3010
-0.4771 SUPPORT </s> -0.3010
-0.7782 SUPPORT FOR -0.2762
-0.3010 TABLES OUR -0.2583
-0.3010 TAKE A -0.2910
-0.7782 TAMMY AND -0.2937
-0.7782 TAMMY IN -0.2775
-0.7782 TAMMY SALMAN 0.0000
-0.3010 TEACHING OUR -0.2872
-0.3010 TECH </s> -0.3010
-0.8451 TECHNOLOGY COMMITTEE 0.0000
-1.1461 TECHNOLOGY EVERYONE 0.0000
-1.1461 TECHNOLOGY SERVICES -0.1761
-1.1461 TECHNOLOGY TAMMY -0.2218
-1.1461 TECHNOLOGY TO -0.2910
-1.1461 TECHNOLOGY WORLD 0.0000
-0.3010 TERMS OF -0.2929
-1.4771 THAT CONTRIBUTES 0.0000
-1.1761 THAT HELPED 0.0000
-1.4771 THAT I 0.0000
-1.4771 THAT INCLUDED -0.2218
-1.4771 THAT LIBRARY -0.2430
-1.4771 THAT OFFER -0.1761
-1.4771 THAT THEY 0.0000
-1.0000 THAT WAS -0.1761
-1.4771 THAT WE -0.2788
-1.4771 THAT WHERE -0.1761
-1.4771 THAT WOULD 0.0000
-1.4771 THAT YOU -0.1249
-1.8062 THE AVAILABILITY 0.0000
-1.8062 THE BEND 0.0000
-1.8062 THE CHANGE -0.2218
-1.8062 THE CONCENTRATION 0.0000
-1.5051 THE DESIGN -0.0969
-1.8062 THE FEW -0.2218
-1.8062 THE FIRST 0.0000
-1.2041 THE LIBRARY -0.1513
-1.8062 THE MAIN 0.0000
-1.8062 THE MIDDLE 0.0000
-1.8062 THE MOVE 0.0000
-1.8062 THE NATURE 0.0000
-1.5051 THE NEEDS 0.0000
-1.5051 THE SEATTLE -0.2430
-1.8062 THE SECOND 0.0000
-1.8062 THE SITE -0.2632
-1.8062 THE TECHNOLOGY -0.2341
-1.8062 THE UNDERGRADUATE 0.0000
-1.5051 THE UNIVERSITY -0.1761
-1.8062 THE USAGE -0.1761
-1.5051 THE USE 0.0000
-1.8062 THE VISION 0.0000
-1.8062 THE WASHINGTON -0.1761
-1.8062 THE WORK -0.1761
-0.6021 THEIR QUESTIONS 0.0000
-0.6021 THEIR WORK -0.1761
-0.3010 THERE ARE -0.2632
-0.3010 THEY DO 0.0000
-0.3010 THING THAT -0.2711
-0.3010 THINGS THAT -0.2711
-0.9031 THIS </s> -0.3010
-1.2041 THIS A -0.2910
-1.2041 THIS CHANGE -0.2218
-1.2041 THIS FROM -0.2041
-1.2041 THIS IS -0.2109
-1.2041 THIS MARKED 0.0000
-1.2041 THIS ROLE -0.1761
-0.3010 THROUGH A -0.2910
-0.3010 TITLE </s> -0.3010
-1.6435 TO 2013 -0.2218
-1.6435 TO CITYU -0.1761
-1.3424 TO COLLABORATE 0.0000
-1.6435 TO CROSS 0.0000
-1.6435 TO DESIGN -0.2430
-1.6435 TO GET 0.0000
-1.6435 TO IMPROVE 0.0000
-1.6435 TO INCREASE 0.0000
-1.6435 TO OFF 0.0000
-1.1663 TO OUR -0.2583
-1.1663 TO SEATTLE -0.1761
-1.6435 TO SEE -0.1761
-1.6435 TO SERVE 0.0000
-1.6435 TO STEP 0.0000
-1.6435 TO TAKE 0.0000
-1.6435 TO THE -0.2872
-1.6435 TO THIS -0.2430
-0.3010 TODAY ARE -0.2632
-0.6021 TRADITIONAL LIBRARY -0.2825
-0.6021 TRADITIONAL LOOKING 0.0000
-0.3010 TRAINING AND -0.2937
-0.3010 TREES FEW -0.2218
-0.3010 TWO THINGS 0.0000
-0.3010 UNDERGRADUATE GRADUATE 0.0000
-0.3010 UNIQUE ASPECT 0.0000
-0.9031 UNIVERSITY </s> -0.3010
-0.9031 UNIVERSITY OF -0.2929
-0.9031 UNIVERSITY S -0.2430
-0.9031 UNIVERSITY THAT -0.2553
-0.3010 UPON THE -0.2872
-0.3010 US IN -0.2894
-0.6021 USAGE </s> -0.3010
-0.6021 USAGE OF -0.2676
-0.3010 USE OF -0.2846
-0.6021 USED BY -0.1761
-0.6021 USED TO -0.2910
-0.3010 VERY BUSY -0.1761
-0.3010 VIEWED AS -0.2730
-0.3010 VISION WAS -0.2730
-0.3010 VISITED US 0.0000
-0.3010 VISUAL OF -0.2929
-0.9031 WAS A -0.2808
-1.2041 WAS AROUND 0.0000
-1.2041 WAS FOR -0.2762
-1.2041 WAS FOUNDED 0.0000
-1.2041 WAS INTERESTED 0.0000
-1.2041 WAS LOCATED 0.0000
-1.2041 WAS SERVING 0.0000
-0.6021 WASHINGTON STATE 0.0000
-0.6021 WASHINGTON THIS -0.2730
-0.3010 WAYS TO -0.2910
-0.8239 WE ARE -0.1761
-1.3010 WE HAD 0.0000
-1.3010 WE MOVED -0.1761
-1.3010 WE NOW -0.2218
-1.3010 WE OFFER -0.1761
-1.3010 WE USED -0.1761
-1.0000 WE WERE -0.2341
-0.7782 WEEK AT -0.2553
-0.7782 WEEK ON -0.2688
-0.7782 WEEK WE -0.2304
-0.3010 WELCOME TO -0.2704
-0.6021 WELL AS -0.2730
-0.6021 WELL SITUATED 0.0000
-1.1461 WERE BECOMING 0.0000
-1.1461 WERE COLLABORATORS 0.0000
-1.1461 WERE FOCUSED 0.0000
-1.1461 WERE INCLUDED -0.2218
-1.1461 WERE INCREASINGLY 0.0000
-1.1461 WERE NOT 0.0000
-1.1461 WERE WELL -0.1761
-0.3010 WHAT SOMETIMES 0.0000
-0.6021 WHERE THE -0.2942
-0.6021 WHERE WE -0.2788
-0.3010 WHICH IS -0.2730
-0.3010 WILL ALSO -0.1761
-0.7782 WITH BOOK 0.0000
-0.7782 WITH FACULTY -0.2688
-0.7782 WITH OVER 0.0000
-0.6021 WORK AND -0.2937
-0.6021 WORK THAT -0.2863
-0.4771 WORKING ADULTS 0.0000
-0.7782 WORKING DIRECTLY -0.1761
-0.3010 WORLD LANGUAGES 0.0000
-0.3010 WOULD BETTER 0.0000
-0.3010 YET BUT -0.1761
-0.4771 YOU LL 0.0000
-0.7782 YOU WILL 0.0000

\3-grams:
-0.3010 1 STOP SHOP
-0.3010 11 COUNTRIES OUR
-0.3010 1973 TO SERVE
-0.3010 2 DIVISIONS THAT
-0.3010 2013 CITYU S
-0.3010 2013 OUR LIBRARY
-0.3010 2013 WE MOVED
-0.3010 260 STUDENTS EACH
-0.3010 3 SCHOOLS AND
-0.3010 33 SITES IN
-0.3010 5 STUDENTS A
-0.3010 <s> 10 </s>
-0.3010 <s> 11 </s>
-0.3010 <s> 12 </s>
-0.3010 <s> 6 </s>
-0.3010 <s> 7 </s>
-0.3010 <s> 8 </s>
-0.3010 <s> 9 </s>
-0.3010 <s> CHALLENGES </s>
-0.3010 <s> CITY UNIVERSITY
-0.7782 <s> EXPANDED ACCESS
-1.0792 <s> EXPANDED COLLABORATIONS
-1.0792 <s> EXPANDED MISSION
-1.0792 <s> EXPANDED OUTREACH
-1.0792 <s> EXPANDED ROLE
-0.3010 <s> FROM THIS
-0.3010 <s> FRONT DESK
-0.3010 <s> IN JANUARY
-0.3010 <s> PRIOR TO
-0.3010 <s> QUICK FACTS
-0.3010 <s> SLIDE CAPTION
-0.3010 <s> SUCCESSES </s>
-0.3010 <s> THE USAGE
-0.3010 <s> TO THIS
-0.3010 <s> WELCOME TO
-0.3010 A 1 STOP
-0.3010 A BIT DANGEROUS
-0.3010 A BUSY WEEK
-0.3010 A CENTRALIZED CURRICULUM
-0.3010 A COLLABORATIVE DESIGN
-0.3010 A CURRENT PICTURE
-0.3010 A DENSE BANK
-0.3010 A FAIRLY TRADITIONAL
-0.3010 A FEW MINUTES
-0.3010 A FOCUS ON
-0.3010 A GIVEN THE
-0.6021 A KEY COMPONENT
-0.6021 A KEY STAKEHOLDER
-0.3010 A LEARNING COMMONS
-0.3010 A MAJOR POINT
-0.3010 A MIX OF
-0.3010 A NON CLASSROOM
-0.3010 A PRIVATE NON
-0.3010 A SIMPLE VISUAL
-0.3010 A SLOW BUT
-0.3010 A VERY BUSY
-0.3010 A WEEK ON
-0.3010 ABILITY TO COLLABORATE
-0.3010 ABOUT FROM TAMMY
-0.3010 ABOUT THIS FROM
-0.3010 ABOUT THROUGH A
-0.3010 ACADEMIC COMMITTEES WAS
-0.3010 ACADEMIC TECH </s>
-0.7782 ACADEMIC TECHNOLOGY COMMITTEE
-0.7782 ACADEMIC TECHNOLOGY EVERYONE
-0.7782 ACADEMIC TECHNOLOGY TAMMY
-0.3010 ACCESS AND COLLABORATION
-0.3010 ACCESS DIGITAL SHIFT
-0.3010 ACCESS THE LIBRARY
-0.3010 ACCREDITED BY NWCCU
-0.3010 ACROSS THE UNIVERSITY
-0.6021 ADMINISTRATIVE CENTER FOR
-0.6021 ADMINISTRATIVE CENTER MOVED
-0.3010 ADMINISTRATIVE FACULTY AT
-0.3010 ADULTS AND INTERNATIONAL
-0.3010 ADULTS WE ARE
-0.3010 ALL OF THEIR
-0.3010 ALL SEATTLE CLASSROOMS
-0.3010 ALREADY STARTED TO
-0.3010 ALSO CONTRIBUTES TO
-0.3010 ALSO SEE THAT
-0.3010 AN INTEGRATED INFORMATION
-0.3010 AND 2 DIVISIONS
-0.3010 AND A KEY
-0.3010 AND ALL OF
-0.3010 AND BEHIND A
-0.3010 AND COLLABORATION </s>
-0.3010 AND DOCTORAL LEVELS
-0.6021 AND FACULTY INTERACTIONS
-0.6021 AND FACULTY TO
-0.3010 AND IMPROVED COLLABORATION
-0.3010 AND INTERNATIONAL STUDENTS
-0.3010 AND LEARNING RESOURCE
-0.3010 AND LIBRARY STAFF
-0.3010 AND MATT ALSO
-0.3010 AND MEXICO AS
-0.3010 AND MORE COMMON
-0.3010 AND OUR PRESENCE
-0.3010 AND PERFORMANCE BASED
-0.3010 AND SMALL STUDY
-0.6021 AND STUDENTS ON
-0.6021 AND STUDENTS THERE
-0.3010 AND SUPPORT FOR
-0.3010 AND TEACHING OUR
-0.3010 AND TECHNOLOGY SERVICES
-0.6021 AND THE LIBRARY
-0.6021 AND THE NATURE
-0.3010 AND THIS IS
-0.3010 AND TO INCREASE
-0.3010 AND WHERE WE
-0.3010 AND YOU LL
-0.3010 ANY AND ALL
-0.3010 ARE A MIX
-0.3010 ARE ACCREDITED BY
-0.6021 ARE NOW LOCATED
-0.6021 ARE NOW WORKING
-0.3010 ARE THE MAIN
-0.3010 ARE TWO THINGS
-0.3010 AROUND THE BEND
-0.3010 AS A KEY
-0.3010 AS CHAIR OF
-0.3010 AS CONDUIT FOR
-0.3010 AS MEMBERS OF
-0.3010 AS PARTNERS IN
-0.3010 AS THE WASHINGTON
-0.3010 AS WELL AS
-0.3010 ASIA EUROPE CANADA
-0.3010 ASPECT OF CITYU
-0.3010 ASSOCIATE DIRECTOR OF
-0.3010 AT 33 SITES
-0.3010 AT ADMINISTRATIVE CENTER
-0.3010 AT OUR SERVICE
-0.6021 AT THE SEATTLE
-0.6021 AT THE UNDERGRADUATE
-0.3010 AVAILABILITY OF TRAINING
-0.3010 BANK OF EVERGREEN
-0.3010 BASED PROGRAMS AT
-0.3010 BE FOUND IN
-0.3010 BECOMING MORE AND
-0.3010 BEEN FROM OUR
-0.3010 BEHIND A DENSE
-0.3010 BELLEVUE LOCATION TO
-0.3010 BELLEVUE TO SEATTLE
-0.3010 BELLEVUE WERE FOCUSED
-0.3010 BEND OF A
-0.3010 BETTER SERVE THE
-0.3010 BETWEEN OUR IT
-0.3010 BIT DANGEROUS TO
-0.3010 BLACKBOARD AND LIBRARY
-0.3010 BOOK STACKS COMPUTERS
-0.3010 BUILDING THAT WAS
-0.3010 BUSINESS TECHNOLOGY WORLD
-0.3010 BUSY ROAD THAT
-0.3010 BUSY WEEK WE
-0.3010 BUT STEADY LEAD
-0.3010 BUT WERE BECOMING
-0.3010 BY NWCCU AT
-0.3010 BY STUDENTS AND
-0.3010 CAME ABOUT THROUGH
-0.3010 CAMPUS WAS INTERESTED
-0.3010 CAN BE FOUND
-0.3010 CANADA AND MEXICO
-0.3010 CAPTION CURRENT NEXT
-0.3010 CENTER FOR CITYU
-0.3010 CENTER IN TERMS
-0.3010 CENTER MATT LECHNER
-0.3010 CENTER MOVED FROM
-0.3010 CENTER WE ARE
-0.3010 CENTRALIZED CURRICULUM DEVELOPMENT
-0.3010 CHAIR OF THE
-0.3010 CHANGE CAME ABOUT
-0.3010 CHANGE FOR THE
-0.3010 CHANGE IN STUDENT
-0.3010 CITY UNIVERSITY OF
-0.3010 CITYU IS COMPRISED
-0.7782 CITYU S ADMINISTRATIVE
-0.7782 CITYU S NEW
-0.7782 CITYU S PROVOST
-0.3010 CITYU THAT CONTRIBUTES
-0.3010 CITYU WHICH IS
-0.3010 CLASSROOM BUILDING THAT
-0.3010 CLASSROOMS AND WHERE
-0.6021 COLLABORATE EFFECTIVELY IS
-0.6021 COLLABORATE EFFECTIVELY ON
-0.3010 COLLABORATION BETWEEN OUR
-0.3010 COLLABORATION MARY MARA
-0.3010 COLLABORATIONS FACULTY </s>
-0.3010 COLLABORATIONS WITH FACULTY
-0.3010 COLLABORATIVE DESIGN PROCESS
-0.3010 COLLABORATORS IN THE
-0.3010 COMMITTEE REPORTS DIRECTLY
-0.3010 COMMITTEE THE TECHNOLOGY
-0.3010 COMMITTEES WAS A
-0.3010 COMMON WE WERE
-0.3010 COMMONS THAT WOULD
-0.3010 COMPLETED PRIMARILY AT
-0.3010 COMPONENT OF THE
-0.3010 COMPRISED OF 3
-0.3010 COMPUTERS AND SMALL
-0.3010 CONCENTRATION OF OUR
-0.3010 CONDUIT FOR COLLABORATION
-0.3010 CONTRIBUTES TO OUR
-0.3010 COUNSELING ONE UNIQUE
-0.3010 COUNTRIES OUR SITES
-0.3010 CROSS AND BEHIND
-0.3010 CURRENT NEXT PREVIOUS
-0.3010 CURRENT PICTURE OF
-0.6021 CURRICULUM DEVELOPMENT IS
-0.6021 CURRICULUM DEVELOPMENT MODEL
-0.3010 CURRICULUM WERE NOT
-0.3010 DANGEROUS TO CROSS
-0.3010 DENSE BANK OF
-0.3010 DESIGN A LEARNING
-0.7782 DESIGN PROCESS FOR
-0.7782 DESIGN PROCESS IS
-0.7782 DESIGN PROCESS THAT
-0.3010 DESK PROVIDES A
-0.3010 DESK THIS CHANGE
-0.3010 DESK USAGE </s>
-0.3010 DESK USED BY
-0.3010 DEVELOPING AN INTEGRATED
-0.3010 DEVELOPING AND TEACHING
-0.3010 DEVELOPMENT IS COMPLETED
-0.3010 DEVELOPMENT MODEL CURRICULUM
-0.3010 DIGITAL SHIFT </s>
-0.3010 DIRECTLY TO CITYU
-0.3010 DIRECTLY WITH OVER
-0.7782 DIRECTOR OF E
-0.7782 DIRECTOR OF INSTRUCTION
-0.7782 DIRECTOR OF LIBRARY
-0.3010 DIVISIONS THAT OFFER
-0.3010 DO THAT YOU
-0.3010 DOCTORAL LEVELS OUR
-0.3010 E RESOURCES ACADEMIC
-0.3010 EACH WEEK AT
-0.3010 EDUCATION COUNSELING ONE
-0.3010 EFFECTIVELY IS A
-0.3010 EFFECTIVELY ON MULTIPLE
-0.3010 ENSURE THAT LIBRARY
-0.3010 ENSURE WE WERE
-0.3010 ENTIRELY ROUTINE YET
-0.3010 EUROPE CANADA AND
-0.3010 EVERGREEN TREES FEW
-0.3010 EVERYONE ON CAMPUS
-0.7782 EXPANDED ACCESS DIGITAL
-0.4771 EXPANDED ACCESS THE
-0.3010 EXPANDED COLLABORATIONS FACULTY
-0.3010 EXPANDED MISSION ACADEMIC
-0.3010 EXPANDED OUTREACH STUDENT
-0.3010 EXPANDED ROLE SITE
-0.3010 EXPANDING UPON THE
-0.3010 FACULTY AND STUDENTS
-0.3010 FACULTY AT THE
-0.3010 FACULTY DEVELOPING AND
-0.3010 FACULTY INTERACTIONS HAS
-0.3010 FACULTY STAFF AND
-0.3010 FACULTY TO GET
-0.3010 FAIRLY TRADITIONAL LOOKING
-0.3010 FEW MINUTES IN
-0.3010 FEW STUDENT INTERACTIONS
-0.3010 FEW STUDENTS VISITED
-0.3010 FIRST IS THAT
-0.3010 FOCUS ON EXPANDING
-0.3010 FOCUSED TRADITIONAL LIBRARY
-0.3010 FOR A 1
-0.6021 FOR CITYU S
-0.6021 FOR CITYU WHICH
-0.3010 FOR COLLABORATION MARY
-0.3010 FOR FACULTY AND
-0.3010 FOR INFORMATION AND
-0.3010 FOR ON SITE
-0.3010 FOR SERVICE TO
-0.3010 FOR THE LIBRARY
-0.3010 FOUND IN ASIA
-0.3010 FOUNDED IN 1973
-0.3010 FROM BELLEVUE TO
-0.3010 FROM OUR BELLEVUE
-0.6021 FROM TAMMY AND
-0.6021 FROM TAMMY IN
-0.3010 FROM THIS </s>
-0.6021 FRONT DESK PROVIDES
-0.6021 FRONT DESK USAGE
-0.3010 GET WHAT SOMETIMES
-0.3010 GIVEN THE SECOND
-0.3010 GRADUATE AND DOCTORAL
-0.3010 HAD ALREADY STARTED
-0.3010 HAS BEEN FROM
-0.3010 HEAR MORE ABOUT
-0.6021 HELPED ENSURE THAT
-0.6021 HELPED ENSURE WE
-0.3010 HOW SIGNIFICANT THE
-0.3010 I WAS SERVING
-0.3010 IMPROVE STUDENT LEARNING
-0.3010 IMPROVED COLLABORATION BETWEEN
-0.3010 IN 11 COUNTRIES
-0.3010 IN 1973 TO
-0.6021 IN A FEW
-0.6021 IN A NON
-0.3010 IN ASIA EUROPE
-0.3010 IN BELLEVUE WERE
-0.3010 IN DEVELOPING AN
-0.6021 IN JANUARY 2013
-0.6021 IN JANUARY OF
-0.3010 IN LEADERSHIP BUSINESS
-0.3010 IN PERSON </s>
-0.3010 IN SEATTLE AND
-0.3010 IN STUDENT AND
-0.3010 IN TERMS OF
-0.4771 IN THE DESIGN
-0.7782 IN THE MIDDLE
-0.3010 IN THEIR WORK
-0.3010 IN WAYS TO
-0.3010 INCLUDED A FOCUS
-0.3010 INCLUDED AS A
-0.3010 INCLUDED FACULTY STAFF
-0.3010 INCREASE THE AVAILABILITY
-0.3010 INCREASINGLY VIEWED AS
-0.3010 INFORMATION AND TECHNOLOGY
-0.3010 INFORMATION DESK USED
-0.3010 INFORMATION LITERACY INSTRUCTION
-0.3010 INSTRUCTION PROGRAM COLLABORATIONS
-0.3010 INTEGRATED INFORMATION LITERACY
-0.3010 INTERACTIONS HAS BEEN
-0.3010 INTERACTIONS IN BELLEVUE
-0.3010 INTERESTED IN WAYS
-0.3010 INTERNATIONAL STUDENTS CITYU
-0.3010 INTO THIS ROLE
-0.7782 IS A CENTRALIZED
-0.7782 IS A CURRENT
-0.7782 IS A PRIVATE
-0.3010 IS COMPLETED PRIMARILY
-0.3010 IS COMPRISED OF
-0.6021 IS THAT I
-0.6021 IS THAT WE
-0.3010 IS THE SITE
-0.3010 IT BLACKBOARD AND
-0.3010 JANUARY 2013 WE
-0.3010 JANUARY OF 2013
-0.3010 KEY COMPONENT OF
-0.3010 KEY STAKEHOLDER IN
-0.3010 LANGUAGES EDUCATION COUNSELING
-0.3010 LEAD IN DEVELOPING
-0.3010 LEADERSHIP BUSINESS TECHNOLOGY
-0.3010 LEARNING AND TO
-0.3010 LEARNING COMMONS THAT
-0.3010 LEARNING RESOURCE CENTER
-0.3010 LECHNER ASSOCIATE DIRECTOR
-0.3010 LEVELS ACROSS THE
-0.3010 LEVELS OUR STUDENTS
-0.3010 LIBRARY AND LEARNING
-0.6021 LIBRARY AS </s>
-0.6021 LIBRARY AS CONDUIT
-0.3010 LIBRARY LEARNING RESOURCE
-0.3010 LIBRARY LOOKED LIKE
-0.3010 LIBRARY SERVICES WE
-0.7782 LIBRARY STAFF FOR
-0.4771 LIBRARY STAFF WERE
-0.3010 LIBRARY WAS LOCATED
-0.3010 LIBRARY WITH BOOK
-0.3010 LIKE ANY AND
-0.3010 LIKE THIS A
-0.3010 LITERACY INSTRUCTION PROGRAM
-0.3010 LL HEAR MORE
-0.6021 LOCATED IN A
-0.6021 LOCATED IN THE
-0.3010 LOCATION THE FIRST
-0.3010 LOCATION TO THE
-0.3010 LOCATION YOU WILL
-0.3010 LOOKED LIKE THIS
-0.3010 LOOKING LIBRARY WITH
-0.3010 MAIN INFORMATION DESK
-0.3010 MAJOR POINT OF
-0.3010 MARA DIRECTOR OF
-0.3010 MARKED A MAJOR
-0.3010 MARY MARA DIRECTOR
-0.3010 MATT ALSO CONTRIBUTES
-0.3010 MATT LECHNER ASSOCIATE
-0.3010 MEMBERS OF STANDING
-0.3010 MEXICO AS WELL
-0.3010 MIDDLE OF ALL
-0.3010 MINUTES IN JANUARY
-0.3010 MISSION ACADEMIC TECH
-0.3010 MIX OF WORKING
-0.3010 MIXED MODE ON
-0.3010 MODE ON SITE
-0.3010 MODEL CURRICULUM DEVELOPMENT
-0.6021 MORE ABOUT FROM
-0.6021 MORE ABOUT THIS
-0.3010 MORE AND MORE
-0.3010 MORE COMMON WE
-0.3010 MOVE TO SEATTLE
-0.3010 MOVED FROM BELLEVUE
-0.3010 MOVED TO SEATTLE
-0.3010 MULTIPLE LEVELS ACROSS
-0.3010 NATURE OF THE
-0.6021 NEEDS OF OUR
-0.6021 NEEDS OF WORKING
-0.3010 NEW LOCATION THE
-0.3010 NEXT PREVIOUS TITLE
-0.3010 NON CLASSROOM BUILDING
-0.3010 NON PROFIT UNIVERSITY
-0.3010 NOT ENTIRELY ROUTINE
-0.3010 NOW ARE THE
-0.3010 NOW LOCATED IN
-0.3010 NOW WORKING DIRECTLY
-0.3010 NWCCU AT THE
-0.3010 OF 2013 CITYU
-0.3010 OF 3 SCHOOLS
-0.3010 OF A VERY
-0.3010 OF ACADEMIC TECHNOLOGY
-0.3010 OF ACCESS AND
-0.3010 OF ALL SEATTLE
-0.3010 OF CHANGE FOR
-0.3010 OF CITYU THAT
-0.3010 OF E RESOURCES
-0.3010 OF EVERGREEN TREES
-0.3010 OF HOW SIGNIFICANT
-0.3010 OF INSTRUCTION </s>
-0.3010 OF LIBRARY LEARNING
-0.9031 OF OUR ADMINISTRATIVE
-0.9031 OF OUR FRONT
-0.9031 OF OUR LIBRARY
-0.9031 OF OUR STUDENTS
-0.3010 OF SEATTLE IS
-0.3010 OF STANDING ACADEMIC
-0.3010 OF TECHNOLOGY TO
-0.7782 OF THE MOVE
-0.7782 OF THE UNIVERSITY
-0.7782 OF THE WORK
-0.3010 OF THEIR QUESTIONS
-0.3010 OF TRAINING AND
-0.3010 OF WORKING ADULTS
-0.3010 OFF SITE STUDENTS
-0.3010 OFFER ONLINE MIXED
-0.3010 OFFER PROGRAMS IN
-0.3010 ON A BUSY
-0.3010 ON CAMPUS WAS
-0.3010 ON EXPANDING UPON
-0.3010 ON MULTIPLE LEVELS
-0.6021 ON SITE AND
-0.6021 ON SITE STUDENTS
-0.3010 ON THE USE
-0.3010 ONE UNIQUE ASPECT
-0.3010 ONLINE MIXED MODE
-0.3010 OUR ABILITY TO
-0.3010 OUR ADMINISTRATIVE FACULTY
-0.3010 OUR BELLEVUE LOCATION
-0.3010 OUR CURRICULUM WERE
-0.3010 OUR FRONT DESK
-0.3010 OUR IT BLACKBOARD
-0.7782 OUR LIBRARY AND
-0.7782 OUR LIBRARY LOOKED
-0.7782 OUR LIBRARY WAS
-0.3010 OUR PRESENCE AS
-0.3010 OUR SERVICE DESK
-0.3010 OUR SESSION EXPANDED
-0.3010 OUR SITES CAN
-0.6021 OUR STUDENTS AND
-0.6021 OUR STUDENTS TODAY
-0.3010 OUTREACH STUDENT SUPPORT
-0.3010 OVER 260 STUDENTS
-0.3010 PARTNERS IN THEIR
-0.3010 PERFORMANCE BASED PROGRAMS
-0.3010 PICTURE OF OUR
-0.3010 POINT OF CHANGE
-0.3010 PRESENCE AS MEMBERS
-0.3010 PREVIOUS TITLE </s>
-0.3010 PRIMARILY AT ADMINISTRATIVE
-0.3010 PRIOR TO 2013
-0.3010 PRIVATE NON PROFIT
-0.3010 PROCESS FOR CITYU
-0.3010 PROCESS IS THAT
-0.3010 PROCESS THAT INCLUDED
-0.3010 PROFIT UNIVERSITY THAT
-0.3010 PROGRAM COLLABORATIONS WITH
-0.3010 PROGRAMS AT 33
-0.3010 PROGRAMS IN LEADERSHIP
-0.3010 PROVIDES A SIMPLE
-0.3010 PROVOST AND A
-0.3010 QUESTIONS ANSWERED </s>
-0.3010 QUICK FACTS </s>
-0.3010 REPORTS DIRECTLY TO
-0.7782 RESOURCE CENTER IN
-0.7782 RESOURCE CENTER MATT
-0.7782 RESOURCE CENTER WE
-0.3010 RESOURCES ACADEMIC TECHNOLOGY
-0.3010 ROAD THAT WAS
-0.3010 ROLE SITE SUPPORT
-0.3010 ROLE THE VISION
-0.3010 ROUTINE YET BUT
-0.3010 S ACADEMIC TECHNOLOGY
-0.3010 S ADMINISTRATIVE CENTER
-0.3010 S NEW LOCATION
-0.3010 S PROVOST AND
-0.3010 SALMAN ASSOCIATE DIRECTOR
-0.3010 SCHOOLS AND 2
-0.6021 SEATTLE AND THIS
-0.6021 SEATTLE AND YOU
-0.3010 SEATTLE CLASSROOMS AND
-0.3010 SEATTLE INCLUDED A
-0.3010 SEATTLE IS A
-0.3010 SEATTLE LOCATION YOU
-0.3010 SEATTLE SITE AND
-0.3010 SEATTLE WASHINGTON THIS
-0.3010 SECOND THING THAT
-0.3010 SEE 5 STUDENTS
-0.3010 SEE THAT WHERE
-0.3010 SEEMS LIKE ANY
-0.3010 SERVE THE NEEDS
-0.3010 SERVICE DESK THIS
-0.3010 SERVICE TO OFF
-0.3010 SERVICES FOR ON
-0.3010 SERVICES WE NOW
-0.3010 SERVING AS CHAIR
-0.3010 SESSION EXPANDED ACCESS
-0.3010 SHOP FOR INFORMATION
-0.3010 SIGNIFICANT THE CHANGE
-0.3010 SIMPLE VISUAL OF
-0.6021 SITE AND PERFORMANCE
-0.6021 SITE AND THE
-0.3010 SITE IN SEATTLE
-0.6021 SITE STUDENTS AND
-0.6021 SITE STUDENTS THE
-0.3010 SITE SUPPORT </s>
-0.3010 SITES CAN BE
-0.3010 SITES IN 11
-0.3010 SITUATED TO STEP
-0.3010 SLIDE CAPTION CURRENT
-0.3010 SLOW BUT STEADY
-0.3010 SMALL STUDY TABLES
-0.3010 SOMETIMES SEEMS LIKE
-0.3010 STACKS COMPUTERS AND
-0.3010 STAFF AND STUDENTS
-0.3010 STAFF FOR SERVICE
-0.6021 STAFF WERE INCLUDED
-0.6021 STAFF WERE WELL
-0.3010 STAKEHOLDER IN THE
-0.3010 STANDING ACADEMIC COMMITTEES
-0.3010 STARTED TO TAKE
-0.3010 STATE WE OFFER
-0.3010 STEADY LEAD IN
-0.3010 STEP INTO THIS
-0.3010 STOP SHOP FOR
-0.3010 STUDENT AND FACULTY
-0.3010 STUDENT INTERACTIONS IN
-0.3010 STUDENT LEARNING AND
-0.3010 STUDENT SUPPORT </s>
-0.3010 STUDENTS A WEEK
-0.7782 STUDENTS AND FACULTY
-0.7782 STUDENTS AND IMPROVED
-0.7782 STUDENTS AND THE
-0.3010 STUDENTS CITYU IS
-0.3010 STUDENTS EACH WEEK
-0.3010 STUDENTS ON THE
-0.3010 STUDENTS THE CONCENTRATION
-0.3010 STUDENTS THERE ARE
-0.3010 STUDENTS TODAY ARE
-0.3010 STUDENTS VISITED US
-0.3010 STUDY TABLES OUR
-0.3010 SUPPORT FOR FACULTY
-0.3010 TABLES OUR LIBRARY
-0.3010 TAKE A SLOW
-0.3010 TAMMY AND MATT
-0.3010 TAMMY IN A
-0.3010 TAMMY SALMAN ASSOCIATE
-0.3010 TEACHING OUR CURRICULUM
-0.6021 TECHNOLOGY COMMITTEE REPORTS
-0.6021 TECHNOLOGY COMMITTEE THE
-0.3010 TECHNOLOGY EVERYONE ON
-0.3010 TECHNOLOGY SERVICES FOR
-0.3010 TECHNOLOGY TAMMY SALMAN
-0.3010 TECHNOLOGY TO IMPROVE
-0.3010 TECHNOLOGY WORLD LANGUAGES
-0.3010 TERMS OF ACCESS
-0.3010 THAT CONTRIBUTES TO
-0.3010 THAT HELPED ENSURE
-0.3010 THAT I WAS
-0.3010 THAT INCLUDED FACULTY
-0.3010 THAT LIBRARY STAFF
-0.3010 THAT OFFER ONLINE
-0.3010 THAT THEY DO
-0.7782 THAT WAS A
-0.7782 THAT WAS AROUND
-0.7782 THAT WAS FOUNDED
-0.3010 THAT WE HAD
-0.3010 THAT WHERE THE
-0.3010 THAT WOULD BETTER
-0.3010 THAT YOU LL
-0.3010 THE AVAILABILITY OF
-0.3010 THE BEND OF
-0.3010 THE CHANGE IN
-0.3010 THE CONCENTRATION OF
-0.3010 THE DESIGN PROCESS
-0.3010 THE FEW STUDENT
-0.3010 THE FIRST IS
-0.9031 THE LIBRARY AND
-0.6021 THE LIBRARY AS
-0.9031 THE LIBRARY STAFF
-0.3010 THE MAIN INFORMATION
-0.3010 THE MIDDLE OF
-0.3010 THE MOVE TO
-0.3010 THE NATURE OF
-0.3010 THE NEEDS OF
-0.6021 THE SEATTLE LOCATION
-0.6021 THE SEATTLE SITE
-0.3010 THE SECOND THING
-0.3010 THE SITE IN
-0.3010 THE TECHNOLOGY COMMITTEE
-0.3010 THE UNDERGRADUATE GRADUATE
-0.6021 THE UNIVERSITY </s>
-0.6021 THE UNIVERSITY S
-0.3010 THE USAGE OF
-0.3010 THE USE OF
-0.3010 THE VISION WAS
-0.3010 THE WASHINGTON STATE
-0.3010 THE WORK THAT
-0.3010 THEIR QUESTIONS ANSWERED
-0.3010 THEIR WORK AND
-0.3010 THERE ARE TWO
-0.3010 THEY DO THAT
-0.3010 THING THAT HELPED
-0.3010 THINGS THAT HELPED
-0.3010 THIS A FAIRLY
-0.3010 THIS CHANGE CAME
-0.3010 THIS FROM TAMMY
-0.3010 THIS IS A
-0.3010 THIS MARKED A
-0.3010 THIS ROLE THE
-0.3010 THROUGH A COLLABORATIVE
-0.3010 TO 2013 OUR
-0.3010 TO CITYU S
-0.3010 TO COLLABORATE EFFECTIVELY
-0.3010 TO CROSS AND
-0.3010 TO DESIGN A
-0.3010 TO GET WHAT
-0.3010 TO IMPROVE STUDENT
-0.3010 TO INCREASE THE
-0.3010 TO OFF SITE
-0.4771 TO OUR ABILITY
-0.7782 TO OUR SESSION
-0.7782 TO SEATTLE AND
-0.7782 TO SEATTLE INCLUDED
-0.7782 TO SEATTLE WASHINGTON
-0.3010 TO SEE 5
-0.3010 TO SERVE THE
-0.3010 TO STEP INTO
-0.3010 TO TAKE A
-0.3010 TO THE SEATTLE
-0.3010 TO THIS </s>
-0.3010 TODAY ARE A
-0.3010 TRADITIONAL LIBRARY SERVICES
-0.3010 TRADITIONAL LOOKING LIBRARY
-0.3010 TRAINING AND SUPPORT
-0.3010 TREES FEW STUDENTS
-0.3010 TWO THINGS THAT
-0.3010 UNDERGRADUATE GRADUATE AND
-0.3010 UNIQUE ASPECT OF
-0.3010 UNIVERSITY OF SEATTLE
-0.3010 UNIVERSITY S ACADEMIC
-0.3010 UNIVERSITY THAT WAS
-0.3010 UPON THE USE
-0.3010 US IN PERSON
-0.3010 USAGE OF OUR
-0.6021 USE OF ACADEMIC
-0.6021 USE OF TECHNOLOGY
-0.3010 USED BY STUDENTS
-0.3010 USED TO SEE
-0.3010 VERY BUSY ROAD
-0.3010 VIEWED AS PARTNERS
-0.3010 VISION WAS FOR
-0.3010 VISITED US IN
-0.3010 VISUAL OF HOW
-0.6021 WAS A BIT
-0.6021 WAS A GIVEN
-0.3010 WAS AROUND THE
-0.3010 WAS FOR A
-0.3010 WAS FOUNDED IN
-0.3010 WAS INTERESTED IN
-0.3010 WAS LOCATED IN
-0.3010 WAS SERVING AS
-0.3010 WASHINGTON STATE WE
-0.3010 WASHINGTON THIS MARKED
-0.3010 WAYS TO DESIGN
-0.7782 WE ARE ACCREDITED
-0.4771 WE ARE NOW
-0.3010 WE HAD ALREADY
-0.3010 WE MOVED TO
-0.3010 WE NOW ARE
-0.3010 WE OFFER PROGRAMS
-0.3010 WE USED TO
-0.6021 WE WERE COLLABORATORS
-0.6021 WE WERE INCREASINGLY
-0.3010 WEEK AT OUR
-0.3010 WEEK ON A
-0.3010 WEEK WE ARE
-0.3010 WELCOME TO OUR
-0.3010 WELL AS THE
-0.3010 WELL SITUATED TO
-0.3010 WERE BECOMING MORE
-0.3010 WERE COLLABORATORS IN
-0.3010 WERE FOCUSED TRADITIONAL
-0.3010 WERE INCLUDED AS
-0.3010 WERE INCREASINGLY VIEWED
-0.3010 WERE NOT ENTIRELY
-0.3010 WERE WELL SITUATED
-0.3010 WHAT SOMETIMES SEEMS
-0.3010 WHERE THE FEW
-0.3010 WHERE WE USED
-0.3010 WHICH IS THE
-0.3010 WILL ALSO SEE
-0.3010 WITH BOOK STACKS
-0.3010 WITH FACULTY DEVELOPING
-0.3010 WITH OVER 260
-0.3010 WORK AND OUR
-0.3010 WORK THAT THEY
-0.6021 WORKING ADULTS AND
-0.6021 WORKING ADULTS WE
-0.3010 WORKING DIRECTLY WITH
-0.3010 WORLD LANGUAGES EDUCATION
-0.3010 WOULD BETTER SERVE
-0.3010 YET BUT WERE
-0.3010 YOU LL HEAR
-0.3010 YOU WILL ALSO

\end\
